<?xml version="1.0" encoding="UTF-8"?>
<BIF VERSION="0.3"  xmlns="http://www.cs.ubc.ca/labs/lci/fopi/ve/XMLBIFv0_3"
	xmlns:xsi="http://www.w3.org/2001/XMLSchema-instance"
	xsi:schemaLocation="http://www.cs.ubc.ca/labs/lci/fopi/ve/XMLBIFv0_3 http://www.cs.ubc.ca/labs/lci/fopi/ve/XMLBIFv0_3/XMLBIFv0_3.xsd">
<NETWORK>
<NAME>Untitled</NAME>
<PROPERTY>detailed = </PROPERTY>
<PROPERTY>short = </PROPERTY>

<VARIABLE TYPE="nature">
	<NAME>Weather</NAME>
	<OUTCOME>Sunny</OUTCOME>
	<OUTCOME>Overcast</OUTCOME>
	<OUTCOME>Raining</OUTCOME>
	<OUTCOME>Snowing</OUTCOME>
	<PROPERTY>position = (7354.013671875, 5102.158203125)</PROPERTY>
</VARIABLE>

<VARIABLE TYPE="nature">
	<NAME>VisibilitySensor</NAME>
	<OUTCOME>High</OUTCOME>
	<OUTCOME>Low</OUTCOME>
	<PROPERTY>position = (7303.25439453125, 5246.84521484375)</PROPERTY>
</VARIABLE>

<VARIABLE TYPE="nature">
	<NAME>SensorError</NAME>
	<OUTCOME>T</OUTCOME>
	<OUTCOME>F</OUTCOME>
	<PROPERTY>position = (7227.96630859375, 5137.10498046875)</PROPERTY>
</VARIABLE>

<VARIABLE TYPE="nature">
	<NAME>PeakTime</NAME>
	<OUTCOME>T</OUTCOME>
	<OUTCOME>F</OUTCOME>
	<PROPERTY>position = (7632.88623046875, 5091.79541015625)</PROPERTY>
</VARIABLE>

<VARIABLE TYPE="nature">
	<NAME>TrafficCongestion</NAME>
	<OUTCOME>T</OUTCOME>
	<OUTCOME>F</OUTCOME>
	<PROPERTY>position = (7567.38427734375, 5305.017578125)</PROPERTY>
</VARIABLE>

<VARIABLE TYPE="nature">
	<NAME>Holiday</NAME>
	<OUTCOME>T</OUTCOME>
	<OUTCOME>F</OUTCOME>
	<PROPERTY>position = (7512.3525390625, 5043.5)</PROPERTY>
</VARIABLE>

<VARIABLE TYPE="nature">
	<NAME>TakeCar</NAME>
	<OUTCOME>T</OUTCOME>
	<OUTCOME>F</OUTCOME>
	<PROPERTY>position = (7517.46630859375, 5144.52197265625)</PROPERTY>
</VARIABLE>

<VARIABLE TYPE="nature">
	<NAME>CameraError</NAME>
	<OUTCOME>T</OUTCOME>
	<OUTCOME>F</OUTCOME>
	<PROPERTY>position = (7752.986328125, 5092.9013671875)</PROPERTY>
</VARIABLE>

<VARIABLE TYPE="nature">
	<NAME>Camera</NAME>
	<OUTCOME>High</OUTCOME>
	<OUTCOME>Low</OUTCOME>
	<PROPERTY>position = (7746.3583984375, 5196.11865234375)</PROPERTY>
</VARIABLE>

<VARIABLE TYPE="nature">
	<NAME>alert</NAME>
	<OUTCOME>T</OUTCOME>
	<OUTCOME>F</OUTCOME>
	<PROPERTY>position = (7501.09765625, 5403.5)</PROPERTY>
</VARIABLE>

<DEFINITION>
	<FOR>Weather</FOR>
	<TABLE>0.5 0.2 0.21 0.09</TABLE>
</DEFINITION>

<DEFINITION>
	<FOR>VisibilitySensor</FOR>
	<GIVEN>Weather</GIVEN>
	<GIVEN>SensorError</GIVEN>
	<TABLE>0.6 0.4 0.9 0.1 0.5 0.5 0.6 0.4 0.3 0.7 0.2 0.8 0.25 0.75 0.26 0.74</TABLE>
</DEFINITION>

<DEFINITION>
	<FOR>SensorError</FOR>
	<TABLE>0.05 0.95</TABLE>
</DEFINITION>

<DEFINITION>
	<FOR>PeakTime</FOR>
	<GIVEN>Holiday</GIVEN>
	<TABLE>0.458 0.542 0.375 0.625</TABLE>
</DEFINITION>

<DEFINITION>
	<FOR>TrafficCongestion</FOR>
	<GIVEN>PeakTime</GIVEN>
	<GIVEN>TakeCar</GIVEN>
	<GIVEN>Camera</GIVEN>
	<TABLE>0.7 0.3 0.62 0.38 0.51 0.49 0.53 0.47 0.41 0.59 0.43 0.57 0.23 0.77 0.36 0.64</TABLE>
</DEFINITION>

<DEFINITION>
	<FOR>Holiday</FOR>
	<TABLE>0.22 0.78</TABLE>
</DEFINITION>

<DEFINITION>
	<FOR>TakeCar</FOR>
	<GIVEN>Weather</GIVEN>
	<GIVEN>PeakTime</GIVEN>
	<GIVEN>Holiday</GIVEN>
	<TABLE>0.7 0.3 0.61 0.39 0.53 0.47 0.5 0.5 0.7 0.3 0.61 0.39 0.52 0.48 0.5 0.5 0.74 0.26 0.63 0.37 0.6 0.4 0.51 0.49 0.71 0.29 0.64 0.36 0.59 0.41 0.51 0.49</TABLE>
</DEFINITION>

<DEFINITION>
	<FOR>CameraError</FOR>
	<TABLE>0.05 0.95</TABLE>
</DEFINITION>

<DEFINITION>
	<FOR>Camera</FOR>
	<GIVEN>CameraError</GIVEN>
	<TABLE>0.65 0.35 0.56 0.44</TABLE>
</DEFINITION>

<DEFINITION>
	<FOR>alert</FOR>
	<GIVEN>TrafficCongestion</GIVEN>
	<TABLE>0.9 0.1 0.1 0.9</TABLE>
</DEFINITION>
</NETWORK>
</BIF>
